// Neural network connection coefficients, automatically generated from 'src/kinematics/network.xml'

/// Weights between input and first hidden layer
const float input_to_hidden0[10][3] = {
	{+0.32201034733335465, +0.45385978975819796, -0.69887123841546239},
	{+0.10656039632864042, -0.12340891098321577, +0.42496745557324866},
	{-0.33058409577213349, +0.10839954467383731, -1.11776679028046599},
	{+0.06236874898349170, +0.32665666096904306, +0.07174855342985037},
	{+0.51227860813272597, -0.40878433902676847, -0.58839258812179041},
	{-0.76938182342515049, +0.04002383872363217, -0.06293428448721575},
	{+0.36157684895182385, -0.91669658111197172, +0.45899139384434789},
	{-0.12754935815836638, -0.49253177707188728, -0.30149431884169919},
	{+0.45662495107161305, -0.02543322484061461, +0.06699762270633325},
	{+0.34589795909690862, +1.19492016186095573, +0.66748869914779185}
};
/// Weights between bias (1) and first hidden layer
const float bias_to_hidden0[10] = {
	 +15.87942936945359840, -2.53450270818328738, +19.44474677663701101,
	 +2.41903246397762262, +12.74209250252968850, +10.71989640086844098,
	 -18.63384046335289312, +5.66607747811359896, -3.35416744157184032,
	 -24.51612290254630366
};
/// Weights between first hidden layer and second hidden layer
const float hidden0_to_hidden1[10][10] = {
	{+0.84962158437565138, -8.00952653812982263, +1.05918900001877314,
	 +2.25619898072373237, +0.32038507604894884, +0.64402629387157384,
	 -1.03452579892122731, -0.63894387160284816, +0.54778762637419220,
	 -0.32276709106164536},
	{-0.90207694970190422, -6.43256392547065037, +0.11177908777820462,
	 -3.49611720713806484, +2.62660345784643523, +1.66565839065340948,
	 -0.02478095301940272, +0.97775420307783145, -0.76771850292250043,
	 -0.56823512978144619},
	{+0.31474910692693825, +0.24990018056501981, -13.90697695529449796,
	 -1.47562233108301011, +0.20824768404625091, +0.27376777379021983,
	 -0.96533184291037555, +0.29475126257513601, +0.05028210321140304,
	 -1.87555229906157450},
	{-0.34509582443933412, +3.77113222676759063, -1.38073009724649642,
	 -2.98424119158077517, -1.24456882114530121, -0.40382501322571657,
	 +2.27797407512966466, +2.37260137230051704, -0.03363998592536241,
	 +1.62286026815330953},
	{-0.11845040170250613, +1.88600167704140831, -1.06649672529874584,
	 +0.32048763162946020, +0.41084477800399610, -1.38279955581431580,
	 +0.44591381708852723, -0.61831416463843869, +7.92617916185192861,
	 +0.46226321993133662},
	{-0.92918307390905697, +0.05903467653428932, +0.32405560105830095,
	 -0.30129730839857977, -7.48979856259103993, +1.05415457227969189,
	 +0.93540330756613455, -0.64385236456343287, -0.38373077805340838,
	 -0.62285868878278705},
	{+0.21256802042329120, +1.26656180567922605, -0.21183469476800709,
	 +0.64412967032150148, +0.22198696066113868, +0.41332758907928369,
	 +0.17070217652461073, -0.06448966131247101, -1.82112449935890774,
	 +0.25497143225703067},
	{-0.25137139854571849, +0.85504782091486331, +0.74262466157174767,
	 -0.80027943578010763, +0.39517295184778678, +1.25651670857543118,
	 -0.31239836037005830, +11.30275911320231330, -0.17760261977538794,
	 -1.35306752520331286},
	{-1.09224334263057532, +3.09724517473551719, +1.21855755905874474,
	 +0.68714239431053159, -3.10732247056607003, -1.02855534895548417,
	 +0.53440580903044954, -1.71755596045203252, +0.67965705967582768,
	 +2.25561230161137782},
	{+1.66367156888381262, -3.77378181499570564, +1.91392579194055568,
	 -1.17082356956044076, +1.43181634406383229, +1.24804755356187536,
	 -1.87671027900751364, -0.03978069100186581, +0.20137525737834439,
	 -2.88420470648482219}
};
/// Weights between bias (1) and second hidden layer
const float bias_to_hidden1[10] = {
	 +4.29314993681815782, -0.71848877121289345, -1.31346069327282966,
	 +2.60559368561850135, +2.31133050371548432, -1.04849570667897352,
	 +0.37582759973939744, -0.44840901775696745, +3.95366683553384846,
	 -0.54559368218934645
};
/// Weights between second hidden layer and output layer
const float hidden1_to_output[3][10] = {
	{-0.24039425452806201, +0.17467713365303505, +0.00379424721284321,
	 -0.09839265858381917, -3.54369012248056992, +0.26460050730932066,
	 +3.08852198053212135, +0.05721345918531175, +0.10460064571998257,
	 +0.00451773864035933},
	{-0.03614693949810500, -4.54955789522807752, -2.70815230371802551,
	 +2.05050770647727942, +1.00887250551714369, -1.63920207030879017,
	 -0.00036324005480747, +1.52959010362484293, -2.48955245332385422,
	 +1.92939809713520405},
	{-2.37816359897662100, +2.97641537638245746, +4.51533185191517372,
	 -0.87512149775011883, -1.17321333667459737, +3.20915203114712533,
	 -1.45975067628265021, -2.60818737784678945, +3.18721571982723040,
	 -1.27977716647891659}
};
/// Weights between bias and output layer
const float bias_to_output[3] = {
	 +0.86512309668108645, -2.11914927548388254, +5.06333522692183990
};
